digraph Tree {
node [shape=box, style="rounded", color="black", fontname="helvetica"] ;
edge [fontname="helvetica"] ;
0 [label="temp_1 <= 56.5\nsquared_error = 147.5\nsamples = 161\nvalue = 61.2"] ;
1 [label="average <= 46.9\nsquared_error = 39.6\nsamples = 57\nvalue = 48.7"] ;
0 -> 1 [labeldistance=2.5, labelangle=45, headlabel="True"] ;
2 [label="temp_1 <= 46.5\nsquared_error = 16.8\nsamples = 22\nvalue = 42.8"] ;
1 -> 2 ;
3 [label="squared_error = 7.7\nsamples = 16\nvalue = 41.4"] ;
2 -> 3 ;
4 [label="squared_error = 14.2\nsamples = 6\nvalue = 48.4"] ;
2 -> 4 ;
5 [label="average <= 49.2\nsquared_error = 13.0\nsamples = 35\nvalue = 52.9"] ;
1 -> 5 ;
6 [label="squared_error = 7.4\nsamples = 15\nvalue = 50.9"] ;
5 -> 6 ;
7 [label="squared_error = 10.9\nsamples = 20\nvalue = 54.9"] ;
5 -> 7 ;
8 [label="temp_1 <= 67.5\nsquared_error = 64.6\nsamples = 104\nvalue = 68.6"] ;
0 -> 8 [labeldistance=2.5, labelangle=-45, headlabel="False"] ;
9 [label="average <= 60.8\nsquared_error = 20.1\nsamples = 49\nvalue = 62.9"] ;
8 -> 9 ;
10 [label="squared_error = 14.4\nsamples = 27\nvalue = 60.8"] ;
9 -> 10 ;
11 [label="squared_error = 13.6\nsamples = 22\nvalue = 65.8"] ;
9 -> 11 ;
12 [label="month <= 9.5\nsquared_error = 52.1\nsamples = 55\nvalue = 73.4"] ;
8 -> 12 ;
13 [label="squared_error = 43.6\nsamples = 53\nvalue = 74.1"] ;
12 -> 13 ;
14 [label="squared_error = 0.8\nsamples = 2\nvalue = 58.5"] ;
12 -> 14 ;
}